digraph Tree {
node [shape=box] ;
0 [label="Weekday_StartTime <= 3.0\nmse = 670042603.867\nsamples = 75\nvalue = 5371.8"] ;
1 [label="ReqWallTime <= 30000.0\nmse = 75298130.137\nsamples = 74\nvalue = 2534.432"] ;
0 -> 1 [labeldistance=2.5, labelangle=45, headlabel="True"] ;
2 [label="Group <= 28.5\nmse = 7045133.011\nsamples = 71\nvalue = 846.507"] ;
1 -> 2 ;
3 [label="ReqWallTime <= 3000.0\nmse = 2910058.82\nsamples = 70\nvalue = 602.257"] ;
2 -> 3 ;
4 [label="ReqWallTime <= 900.0\nmse = 17211.053\nsamples = 56\nvalue = 59.732"] ;
3 -> 4 ;
5 [label="ReqWallTime <= 450.0\nmse = 580.113\nsamples = 49\nvalue = 25.265"] ;
4 -> 5 ;
6 [label="TaskReq <= 28.5\nmse = 139.824\nsamples = 41\nvalue = 20.073"] ;
5 -> 6 ;
7 [label="User <= 20.5\nmse = 47.81\nsamples = 37\nvalue = 18.027"] ;
6 -> 7 ;
8 [label="Hour_StartTime <= 12.5\nmse = 53.793\nsamples = 22\nvalue = 20.455"] ;
7 -> 8 ;
9 [label="TaskReq <= 1.5\nmse = 32.782\nsamples = 15\nvalue = 22.867"] ;
8 -> 9 ;
10 [label="WaitTime <= 60.0\nmse = 1.556\nsamples = 3\nvalue = 14.333"] ;
9 -> 10 ;
11 [label="mse = 0.0\nsamples = 1\nvalue = 16.0"] ;
10 -> 11 ;
12 [label="WaitTime <= 180.0\nmse = 0.25\nsamples = 2\nvalue = 13.5"] ;
10 -> 12 ;
13 [label="mse = 0.0\nsamples = 1\nvalue = 14.0"] ;
12 -> 13 ;
14 [label="mse = 0.0\nsamples = 1\nvalue = 13.0"] ;
12 -> 14 ;
15 [label="Hour_SubmitTime <= 7.5\nmse = 17.833\nsamples = 12\nvalue = 25.0"] ;
9 -> 15 ;
16 [label="WaitTime <= 4200.0\nmse = 1.984\nsamples = 8\nvalue = 22.625"] ;
15 -> 16 ;
17 [label="TaskCount <= 8.5\nmse = 1.36\nsamples = 5\nvalue = 21.8"] ;
16 -> 17 ;
18 [label="StartTime_TS <= 1231747392.0\nmse = 0.222\nsamples = 3\nvalue = 22.667"] ;
17 -> 18 ;
19 [label="mse = 0.0\nsamples = 2\nvalue = 23.0"] ;
18 -> 19 ;
20 [label="mse = 0.0\nsamples = 1\nvalue = 22.0"] ;
18 -> 20 ;
21 [label="TaskReq <= 9.5\nmse = 0.25\nsamples = 2\nvalue = 20.5"] ;
17 -> 21 ;
22 [label="mse = 0.0\nsamples = 1\nvalue = 21.0"] ;
21 -> 22 ;
23 [label="mse = 0.0\nsamples = 1\nvalue = 20.0"] ;
21 -> 23 ;
24 [label="mse = 0.0\nsamples = 3\nvalue = 24.0"] ;
16 -> 24 ;
25 [label="Hour_StartTime <= 10.0\nmse = 15.688\nsamples = 4\nvalue = 29.75"] ;
15 -> 25 ;
26 [label="TaskReq <= 3.0\nmse = 0.667\nsamples = 3\nvalue = 32.0"] ;
25 -> 26 ;
27 [label="StartTime_TS <= 1231750080.0\nmse = 0.25\nsamples = 2\nvalue = 31.5"] ;
26 -> 27 ;
28 [label="mse = 0.0\nsamples = 1\nvalue = 31.0"] ;
27 -> 28 ;
29 [label="mse = 0.0\nsamples = 1\nvalue = 32.0"] ;
27 -> 29 ;
30 [label="mse = 0.0\nsamples = 1\nvalue = 33.0"] ;
26 -> 30 ;
31 [label="mse = 0.0\nsamples = 1\nvalue = 23.0"] ;
25 -> 31 ;
32 [label="TaskCount <= 11.0\nmse = 59.633\nsamples = 7\nvalue = 15.286"] ;
8 -> 32 ;
33 [label="SubmitTime_TS <= 1231775616.0\nmse = 64.8\nsamples = 5\nvalue = 13.0"] ;
32 -> 33 ;
34 [label="JobId <= 79.5\nmse = 55.688\nsamples = 4\nvalue = 10.75"] ;
33 -> 34 ;
35 [label="TaskCount <= 8.5\nmse = 4.0\nsamples = 2\nvalue = 18.0"] ;
34 -> 35 ;
36 [label="mse = 0.0\nsamples = 1\nvalue = 16.0"] ;
35 -> 36 ;
37 [label="mse = 0.0\nsamples = 1\nvalue = 20.0"] ;
35 -> 37 ;
38 [label="Hour_StartTime <= 14.0\nmse = 2.25\nsamples = 2\nvalue = 3.5"] ;
34 -> 38 ;
39 [label="mse = 0.0\nsamples = 1\nvalue = 5.0"] ;
38 -> 39 ;
40 [label="mse = 0.0\nsamples = 1\nvalue = 2.0"] ;
38 -> 40 ;
41 [label="mse = 0.0\nsamples = 1\nvalue = 22.0"] ;
33 -> 41 ;
42 [label="TaskReq <= 14.0\nmse = 1.0\nsamples = 2\nvalue = 21.0"] ;
32 -> 42 ;
43 [label="mse = 0.0\nsamples = 1\nvalue = 20.0"] ;
42 -> 43 ;
44 [label="mse = 0.0\nsamples = 1\nvalue = 22.0"] ;
42 -> 44 ;
45 [label="TaskCount <= 24.5\nmse = 17.716\nsamples = 15\nvalue = 14.467"] ;
7 -> 45 ;
46 [label="TaskCount <= 12.5\nmse = 14.714\nsamples = 14\nvalue = 15.0"] ;
45 -> 46 ;
47 [label="TaskReq <= 8.5\nmse = 10.992\nsamples = 11\nvalue = 14.091"] ;
46 -> 47 ;
48 [label="JobId <= 53.5\nmse = 0.89\nsamples = 10\nvalue = 15.1"] ;
47 -> 48 ;
49 [label="StartTime_TS <= 1231748736.0\nmse = 0.25\nsamples = 2\nvalue = 16.5"] ;
48 -> 49 ;
50 [label="mse = 0.0\nsamples = 1\nvalue = 17.0"] ;
49 -> 50 ;
51 [label="mse = 0.0\nsamples = 1\nvalue = 16.0"] ;
49 -> 51 ;
52 [label="TaskReq <= 1.5\nmse = 0.438\nsamples = 8\nvalue = 14.75"] ;
48 -> 52 ;
53 [label="User <= 25.5\nmse = 0.222\nsamples = 3\nvalue = 14.333"] ;
52 -> 53 ;
54 [label="mse = 0.0\nsamples = 2\nvalue = 14.0"] ;
53 -> 54 ;
55 [label="mse = 0.0\nsamples = 1\nvalue = 15.0"] ;
53 -> 55 ;
56 [label="StartTime_TS <= 1231749632.0\nmse = 0.4\nsamples = 5\nvalue = 15.0"] ;
52 -> 56 ;
57 [label="mse = 0.0\nsamples = 1\nvalue = 16.0"] ;
56 -> 57 ;
58 [label="JobId <= 60.0\nmse = 0.188\nsamples = 4\nvalue = 14.75"] ;
56 -> 58 ;
59 [label="mse = 0.0\nsamples = 1\nvalue = 14.0"] ;
58 -> 59 ;
60 [label="mse = 0.0\nsamples = 3\nvalue = 15.0"] ;
58 -> 60 ;
61 [label="mse = 0.0\nsamples = 1\nvalue = 4.0"] ;
47 -> 61 ;
62 [label="WaitTime <= 11700.0\nmse = 14.222\nsamples = 3\nvalue = 18.333"] ;
46 -> 62 ;
63 [label="mse = 0.0\nsamples = 2\nvalue = 21.0"] ;
62 -> 63 ;
64 [label="mse = 0.0\nsamples = 1\nvalue = 13.0"] ;
62 -> 64 ;
65 [label="mse = 0.0\nsamples = 1\nvalue = 7.0"] ;
45 -> 65 ;
66 [label="StartTime_TS <= 1231769664.0\nmse = 594.0\nsamples = 4\nvalue = 39.0"] ;
6 -> 66 ;
67 [label="mse = 0.0\nsamples = 1\nvalue = 81.0"] ;
66 -> 67 ;
68 [label="TaskCount <= 47.5\nmse = 8.0\nsamples = 3\nvalue = 25.0"] ;
66 -> 68 ;
69 [label="mse = 0.0\nsamples = 2\nvalue = 23.0"] ;
68 -> 69 ;
70 [label="mse = 0.0\nsamples = 1\nvalue = 29.0"] ;
68 -> 70 ;
71 [label="WaitTime <= 750.0\nmse = 1990.359\nsamples = 8\nvalue = 51.875"] ;
5 -> 71 ;
72 [label="JobId <= 36.5\nmse = 605.102\nsamples = 7\nvalue = 37.429"] ;
71 -> 72 ;
73 [label="SubmitTime_TS <= 1231743360.0\nmse = 20.25\nsamples = 2\nvalue = 17.5"] ;
72 -> 73 ;
74 [label="mse = 0.0\nsamples = 1\nvalue = 22.0"] ;
73 -> 74 ;
75 [label="mse = 0.0\nsamples = 1\nvalue = 13.0"] ;
73 -> 75 ;
76 [label="TaskCount <= 2.5\nmse = 616.64\nsamples = 5\nvalue = 45.4"] ;
72 -> 76 ;
77 [label="JobId <= 50.5\nmse = 401.0\nsamples = 4\nvalue = 54.0"] ;
76 -> 77 ;
78 [label="StartTime_TS <= 1231746368.0\nmse = 256.889\nsamples = 3\nvalue = 45.667"] ;
77 -> 78 ;
79 [label="mse = 0.0\nsamples = 2\nvalue = 57.0"] ;
78 -> 79 ;
80 [label="mse = 0.0\nsamples = 1\nvalue = 23.0"] ;
78 -> 80 ;
81 [label="mse = 0.0\nsamples = 1\nvalue = 79.0"] ;
77 -> 81 ;
82 [label="mse = 0.0\nsamples = 1\nvalue = 11.0"] ;
76 -> 82 ;
83 [label="mse = 0.0\nsamples = 1\nvalue = 153.0"] ;
71 -> 83 ;
84 [label="WaitTime <= 2370.0\nmse = 67101.714\nsamples = 7\nvalue = 301.0"] ;
4 -> 84 ;
85 [label="JobId <= 85.0\nmse = 10316.188\nsamples = 4\nvalue = 515.25"] ;
84 -> 85 ;
86 [label="User <= 22.0\nmse = 576.0\nsamples = 2\nvalue = 615.0"] ;
85 -> 86 ;
87 [label="mse = 0.0\nsamples = 1\nvalue = 639.0"] ;
86 -> 87 ;
88 [label="mse = 0.0\nsamples = 1\nvalue = 591.0"] ;
86 -> 88 ;
89 [label="Hour_StartTime <= 11.0\nmse = 156.25\nsamples = 2\nvalue = 415.5"] ;
85 -> 89 ;
90 [label="mse = 0.0\nsamples = 1\nvalue = 403.0"] ;
89 -> 90 ;
91 [label="mse = 0.0\nsamples = 1\nvalue = 428.0"] ;
89 -> 91 ;
92 [label="User <= 20.5\nmse = 6.222\nsamples = 3\nvalue = 15.333"] ;
84 -> 92 ;
93 [label="SubmitTime_TS <= 1231747840.0\nmse = 1.0\nsamples = 2\nvalue = 17.0"] ;
92 -> 93 ;
94 [label="mse = 0.0\nsamples = 1\nvalue = 16.0"] ;
93 -> 94 ;
95 [label="mse = 0.0\nsamples = 1\nvalue = 18.0"] ;
93 -> 95 ;
96 [label="mse = 0.0\nsamples = 1\nvalue = 12.0"] ;
92 -> 96 ;
97 [label="WaitTime <= 12600.0\nmse = 8594782.372\nsamples = 14\nvalue = 2772.357"] ;
3 -> 97 ;
98 [label="TaskCount <= 4.5\nmse = 1337798.833\nsamples = 12\nvalue = 1895.0"] ;
97 -> 98 ;
99 [label="WaitTime <= 30.0\nmse = 566738.16\nsamples = 5\nvalue = 785.8"] ;
98 -> 99 ;
100 [label="Hour_SubmitTime <= 11.0\nmse = 59292.25\nsamples = 2\nvalue = 258.5"] ;
99 -> 100 ;
101 [label="mse = 0.0\nsamples = 1\nvalue = 15.0"] ;
100 -> 101 ;
102 [label="mse = 0.0\nsamples = 1\nvalue = 502.0"] ;
100 -> 102 ;
103 [label="ReqWallTime <= 6300.0\nmse = 596096.222\nsamples = 3\nvalue = 1137.333"] ;
99 -> 103 ;
104 [label="mse = 0.0\nsamples = 1\nvalue = 2113.0"] ;
103 -> 104 ;
105 [label="SubmitTime_TS <= 1231754496.0\nmse = 180200.25\nsamples = 2\nvalue = 649.5"] ;
103 -> 105 ;
106 [label="mse = 0.0\nsamples = 1\nvalue = 1074.0"] ;
105 -> 106 ;
107 [label="mse = 0.0\nsamples = 1\nvalue = 225.0"] ;
105 -> 107 ;
108 [label="ReqWallTime <= 4800.0\nmse = 382036.49\nsamples = 7\nvalue = 2687.286"] ;
98 -> 108 ;
109 [label="TaskCount <= 20.5\nmse = 64726.222\nsamples = 3\nvalue = 2131.333"] ;
108 -> 109 ;
110 [label="Hour_SubmitTime <= 21.5\nmse = 1681.0\nsamples = 2\nvalue = 1953.0"] ;
109 -> 110 ;
111 [label="mse = 0.0\nsamples = 1\nvalue = 1912.0"] ;
110 -> 111 ;
112 [label="mse = 0.0\nsamples = 1\nvalue = 1994.0"] ;
110 -> 112 ;
113 [label="mse = 0.0\nsamples = 1\nvalue = 2488.0"] ;
109 -> 113 ;
114 [label="TaskCount <= 8.5\nmse = 214347.688\nsamples = 4\nvalue = 3104.25"] ;
108 -> 114 ;
115 [label="mse = 0.0\nsamples = 1\nvalue = 2337.0"] ;
114 -> 115 ;
116 [label="TaskReq <= 19.5\nmse = 24164.667\nsamples = 3\nvalue = 3360.0"] ;
114 -> 116 ;
117 [label="StartTime_TS <= 1231808576.0\nmse = 930.25\nsamples = 2\nvalue = 3251.5"] ;
116 -> 117 ;
118 [label="mse = 0.0\nsamples = 1\nvalue = 3282.0"] ;
117 -> 118 ;
119 [label="mse = 0.0\nsamples = 1\nvalue = 3221.0"] ;
117 -> 119 ;
120 [label="mse = 0.0\nsamples = 1\nvalue = 3577.0"] ;
116 -> 120 ;
121 [label="Hour_SubmitTime <= 9.5\nmse = 19806950.25\nsamples = 2\nvalue = 8036.5"] ;
97 -> 121 ;
122 [label="mse = 0.0\nsamples = 1\nvalue = 3586.0"] ;
121 -> 122 ;
123 [label="mse = 0.0\nsamples = 1\nvalue = 12487.0"] ;
121 -> 123 ;
124 [label="mse = 0.0\nsamples = 1\nvalue = 17944.0"] ;
2 -> 124 ;
125 [label="ReqWallTime <= 44100.0\nmse = 27382394.0\nsamples = 3\nvalue = 42482.0"] ;
1 -> 125 ;
126 [label="mse = 0.0\nsamples = 1\nvalue = 35373.0"] ;
125 -> 126 ;
127 [label="ReqWallTime <= 52500.0\nmse = 3170180.25\nsamples = 2\nvalue = 46036.5"] ;
125 -> 127 ;
128 [label="mse = 0.0\nsamples = 1\nvalue = 47817.0"] ;
127 -> 128 ;
129 [label="mse = 0.0\nsamples = 1\nvalue = 44256.0"] ;
127 -> 129 ;
130 [label="mse = 0.0\nsamples = 1\nvalue = 215337.0"] ;
0 -> 130 [labeldistance=2.5, labelangle=-45, headlabel="False"] ;
}